{"learner": {"attributes": {"best_iteration": "5", "best_ntree_limit": "6"}, "feature_names": ["erythema", "scaling", "definite_borders", "itching", "koebner_phenomenon", "polygonal_papules", "follicular_papules", "oral_mucosal_involvement", "knee_and_elbow_involvement", "scalp_involvement", "family_history", "melanin_incontinence", "eosinophils_in_the_infiltrate", "pnl_infiltrate", "fibrosis_of_the_papillary_dermis", "exocytosis", "acanthosis", "hyperkeratosis", "parakeratosis", "clubbing_of_the_rete_ridges", "elongation_of_the_rete_ridges", "thinning_of_the_suprapapillary_epidermis", "spongiform_pustule", "munro_microabcess", "focal_hypergranulosis", "disappearance_of_the_granular_layer", "vacuolisation_and_damage_of_basal_layer", "spongiosis", "saw-tooth_appearance_of_retes", "follicular_horn_plug", "perifollicular_parakeratosis", "inflammatory_monoluclear_inflitrate", "band-like_infiltrate", "age"], "feature_types": ["float", "float", "float", "float", "float", "float", "float", "float", "float", "float", "float", "float", "float", "float", "float", "float", "float", "float", "float", "float", "float", "float", "float", "float", "float", "float", "float", "float", "float", "float", "float", "float", "float", "float"], "gradient_booster": {"model": {"gbtree_model_param": {"num_trees": "36", "size_leaf_vector": "0"}, "tree_info": [0, 1, 2, 3, 4, 5, 0, 1, 2, 3, 4, 5, 0, 1, 2, 3, 4, 5, 0, 1, 2, 3, 4, 5, 0, 1, 2, 3, 4, 5, 0, 1, 2, 3, 4, 5], "trees": [{"base_weights": [0.5011464789, -0.1628959266, 0.87749190768, -0.17974220241, 0.63805974696, 0.43656719844, 0.89692489311], "categories": [], "categories_nodes": [], "categories_segments": [], "categories_sizes": [], "default_left": [false, false, false, false, false, false, false], "id": 0, "left_children": [1, 3, 5, -1, -1, -1, -1], "loss_changes": [199.0364943599, 10.8036516753, 2.4081279593, 0.0, 0.0, 0.0, 0.0], "parents": [-1, 0, 0, 1, 1, 2, 2], "right_children": [2, 4, 6, -1, -1, -1, -1], "split_conditions": [0.525, 2.0, 1.0, -0.17974220241, 0.63805974696, 0.43656719844, 0.89692489311], "split_indices": [21, 19, 19, 0, 0, 0, 0], "split_type": [0, 0, 0, 0, 0, 0, 0], "sum_hessian": [101.66666060686111, 71.1111068725586, 30.55555373430252, 69.72221806645393, 1.38888880610466, 1.38888880610466, 29.16666492819786], "tree_param": {"num_deleted": "0", "num_feature": "34", "num_nodes": "7", "size_leaf_vector": "0"}}, {"base_weights": [3.57e-08, -0.15121393215, 0.24669922166999997, -0.16942384421999998, 0.0725806599, 1.068e-08, 0.7928967364499999, -0.17961962901, -0.12487611170999999, -0.16791044709, 0.17475730205999998, 0.22001847381, -0.17878560714, 0.23507464992, 0.86339943594, 0.23507464992, -0.17816742072, -0.04306219316999999, 0.57798169281, 0.59765629524, 0.012693946440000001, 0.57798169281, 0.89057049387], "categories": [], "categories_nodes": [], "categories_segments": [], "categories_sizes": [], "default_left": [false, false, false, false, false, false, false, false, false, false, false, false, false, false, false, false, false, false, false, false, false, false, false], "id": 1, "left_children": [1, 3, 5, 7, 9, 11, 13, -1, 15, -1, 17, 19, -1, -1, 21, -1, -1, -1, -1, -1, -1, -1, -1], "loss_changes": [27.6988440963, 1.0057541307, 56.6670549163, 0.3339356262, 2.6229303921, 10.8701764252, 4.2533776214, 0.0, 2.2943788269, 0.0, 3.378211363, 9.6804625382, 0.0, 0.0, 0.3240741443, 0.0, 0.0, 0.0, 0.0, 0.0, 0.0, 0.0, 0.0], "parents": [-1, 0, 0, 1, 1, 2, 2, 3, 3, 4, 4, 5, 5, 6, 6, 8, 8, 10, 10, 11, 11, 14, 14], "right_children": [2, 4, 6, 8, 10, 12, 14, -1, 16, -1, 18, 20, -1, -1, 22, -1, -1, -1, -1, -1, -1, -1, -1], "split_conditions": [2.0, 1.0, 1.0, 2.0, 2.0, 0.8999999999999999, 2.0, -0.17961962901, 1.0, -0.16791044709, 1.0, 1.0, -0.17878560714, 0.23507464992, 2.0, 0.23507464992, -0.17816742072, -0.04306219316999999, 0.57798169281, 0.59765629524, 0.012693946440000001, 0.57798169281, 0.89057049387], "split_indices": [27, 12, 13, 13, 15, 4, 0, 0, 19, 0, 13, 18, 0, 0, 1, 0, 0, 0, 0, 0, 0, 0, 0], "split_type": [0, 0, 0, 0, 0, 0, 0, 0, 0, 0, 0, 0, 0, 0, 0, 0, 0, 0, 0, 0, 0, 0, 0], "sum_hessian": [101.66666060686111, 63.055551797151566, 38.61110880970955, 58.33332985639572, 4.722221940755844, 26.666665077209473, 11.944443732500076, 47.22221940755844, 11.11111044883728, 1.38888880610466, 3.333333134651184, 11.944443732500076, 14.722221344709396, 1.38888880610466, 10.555554926395416, 1.38888880610466, 9.72222164273262, 2.222222089767456, 1.111111044883728, 4.16666641831398, 7.777777314186096, 1.111111044883728, 9.444443881511688], "tree_param": {"num_deleted": "0", "num_feature": "34", "num_nodes": "23", "size_leaf_vector": "0"}}, {"base_weights": [0.108090445, -0.17249291358, 0.8953951746, -0.17974723047, -0.12487611170999999, -0.17786561252999997, 0.0347490471, 0.33027525726, -0.1698113202], "categories": [], "categories_nodes": [], "categories_segments": [], "categories_sizes": [], "default_left": [false, false, false, false, false, false, false, false, false], "id": 2, "left_children": [1, 3, -1, -1, 5, -1, 7, -1, -1], "loss_changes": [161.2655760032, 0.3691973366, 0.0, 0.0, 1.2084466479, 0.0, 1.8381540708, 0.0, 0.0], "parents": [-1, 0, 0, 1, 1, 4, 4, 6, 6], "right_children": [2, 4, -1, -1, 6, -1, 8, -1, -1], "split_conditions": [0.6, 1.2, 0.8953951746, -0.17974723047, 2.0, -0.17786561252999997, 32.0, 0.33027525726, -0.1698113202], "split_indices": [11, 4, 0, 0, 17, 0, 33, 0, 0], "split_type": [0, 0, 0, 0, 0, 0, 0, 0, 0], "sum_hessian": [101.66666060686111, 82.22221732139587, 19.44444328546524, 71.1111068725586, 11.11111044883728, 8.33333283662796, 2.77777761220932, 1.111111044883728, 1.666666567325592], "tree_param": {"num_deleted": "0", "num_feature": "34", "num_nodes": "9", "size_leaf_vector": "0"}}, {"base_weights": [-0.1179167745, -0.16884028827, 0.1236854865, -0.17958820539, -0.12747875045999998, -0.08533281173999999, 0.45867001919999995, 0.33027525726, -0.17831074026000002, -0.14605587308999998, 0.8490566616299999, 0.86432932995, -0.17744479481999997, -0.15591164864999998, 0.0335821014, 0.8908371672300001, 0.57798169281], "categories": [], "categories_nodes": [], "categories_segments": [], "categories_sizes": [], "default_left": [false, false, false, false, false, false, false, false, false, false, false, false, false, false, false, false, false], "id": 3, "left_children": [1, 3, 5, -1, 7, 9, 11, -1, -1, 13, -1, 15, -1, -1, -1, -1, -1], "loss_changes": [24.1075189303, 0.3288634365, 39.815489571, 0.0, 2.7183403854, 18.238225574, 41.5412480202, 0.0, 0.0, 0.7073266654, 0.0, 0.3500025508, 0.0, 0.0, 0.0, 0.0, 0.0], "parents": [-1, 0, 0, 1, 1, 2, 2, 4, 4, 5, 5, 6, 6, 9, 9, 11, 11], "right_children": [2, 4, 6, -1, 8, 10, 12, -1, -1, 14, -1, 16, -1, -1, -1, -1, -1], "split_conditions": [1.0, 1.2, 0.8999999999999999, -0.17958820539, 2.0, 1.0, 2.0, 0.33027525726, -0.17831074026000002, 2.0, 0.8490566616299999, 1.0, -0.17744479481999997, -0.15591164864999998, 0.0335821014, 0.8908371672300001, 0.57798169281], "split_indices": [27, 4, 4, 0, 3, 25, 7, 0, 0, 17, 0, 13, 0, 0, 0, 0, 0], "split_type": [0, 0, 0, 0, 0, 0, 0, 0, 0, 0, 0, 0, 0, 0, 0, 0, 0], "sum_hessian": [101.66666060686111, 55.27777448296547, 46.388886123895645, 43.611108511686325, 11.666665971279144, 28.611109405755997, 17.77777671813965, 1.111111044883728, 10.555554926395416, 26.944442838430405, 1.666666567325592, 10.833332687616348, 6.9444440305233, 25.555554032325745, 1.38888880610466, 9.72222164273262, 1.111111044883728], "tree_param": {"num_deleted": "0", "num_feature": "34", "num_nodes": "17", "size_leaf_vector": "0"}}, {"base_weights": [-0.0884375719, -0.15282806682, 0.8464193877, -0.07135777358999999, -0.16436010753, 0.6346154313, 0.8913276863399999, 0.33962267069999996, -0.14668218663, -0.1067193633, -0.1711135959, 0.83955229548, 0.33027525726, 0.0335821014, -0.17779291541999998, 1.041e-08, -0.17647058805000002, -0.15564798455999998, -0.17959337348999999], "categories": [], "categories_nodes": [], "categories_segments": [], "categories_sizes": [], "default_left": [false, false, false, false, false, false, false, false, false, false, false, false, false, false, false, false, false, false, false], "id": 4, "left_children": [1, 3, 5, 7, 9, 11, -1, -1, 13, 15, 17, -1, -1, -1, -1, -1, -1, -1, -1], "loss_changes": [60.191170684, 0.8410990502, 0.6362968749, 3.3526352497, 0.3240826212, 1.4937223336, 0.0, 0.0, 0.520828591, 0.6975122483, 0.0576549355, 0.0, 0.0, 0.0, 0.0, 0.0, 0.0, 0.0, 0.0], "parents": [-1, 0, 0, 1, 1, 2, 2, 3, 3, 4, 4, 5, 5, 8, 8, 9, 9, 10, 10], "right_children": [2, 4, 6, 8, 10, 12, -1, -1, 14, 16, 18, -1, -1, -1, -1, -1, -1, -1, -1], "split_conditions": [2.0, 1.0, 1.7999999999999998, 1.0, 2.0, 2.0, 0.8913276863399999, 0.33962267069999996, 2.0, 0.8999999999999999, 1.0, 0.83955229548, 0.33027525726, 0.0335821014, -0.17779291541999998, 1.041e-08, -0.17647058805000002, -0.15564798455999998, -0.17959337348999999], "split_indices": [14, 2, 20, 27, 0, 0, 0, 0, 15, 4, 15, 0, 0, 0, 0, 0, 0, 0, 0], "split_type": [0, 0, 0, 0, 0, 0, 0, 0, 0, 0, 0, 0, 0, 0, 0, 0, 0, 0, 0], "sum_hessian": [101.66666060686111, 88.88888359069824, 12.777777016162872, 11.11111044883728, 77.77777314186096, 2.499999850988388, 10.277777165174484, 1.666666567325592, 9.444443881511688, 8.33333283662796, 69.444440305233, 1.38888880610466, 1.111111044883728, 1.38888880610466, 8.055555075407028, 3.333333134651184, 4.999999701976776, 25.277776271104813, 44.16666403412819], "tree_param": {"num_deleted": "0", "num_feature": "34", "num_nodes": "19", "size_leaf_vector": "0"}}, {"base_weights": [-0.4028823991, 0.35643567521999997, -0.17326552811999998, -0.17647058805000002, 0.88235300325, -0.17979452055, -0.03515624157, -0.17429577432, 0.33027525726], "categories": [], "categories_nodes": [], "categories_segments": [], "categories_sizes": [], "default_left": [false, false, false, false, false, false, false, false, false], "id": 5, "left_children": [1, 3, 5, -1, -1, -1, 7, -1, -1], "loss_changes": [28.3388096571, 25.0806442311, 0.9123915301, 0.0, 0.0, 0.0, 2.4744371371, 0.0, 0.0], "parents": [-1, 0, 0, 1, 1, 2, 2, 6, 6], "right_children": [2, 4, 6, -1, -1, -1, 8, -1, -1], "split_conditions": [16.0, 0.6749999999999999, 0.6749999999999999, -0.17647058805000002, 0.88235300325, -0.17979452055, 2.0, -0.17429577432, 0.33027525726], "split_indices": [33, 6, 6, 0, 0, 0, 8, 0, 0], "split_type": [0, 0, 0, 0, 0, 0, 0, 0, 0], "sum_hessian": [101.66666060686111, 9.999999403953552, 91.66666120290756, 4.999999701976776, 4.999999701976776, 87.49999478459358, 4.16666641831398, 3.055555373430252, 1.111111044883728], "tree_param": {"num_deleted": "0", "num_feature": "34", "num_nodes": "9", "size_leaf_vector": "0"}}, {"base_weights": [0.3509881704, -0.15311388387, 0.40370878872, -0.17210125608000001, 0.34657500312, 0.275898474, 0.40795254491999994], "categories": [], "categories_nodes": [], "categories_segments": [], "categories_sizes": [], "default_left": [false, false, false, false, false, false, false], "id": 6, "left_children": [1, 3, 5, -1, -1, -1, -1], "loss_changes": [75.8931681791, 6.2444056419, 0.1761054252, 0.0, 0.0, 0.0, 0.0], "parents": [-1, 0, 0, 1, 1, 2, 2], "right_children": [2, 4, 6, -1, -1, -1, -1], "split_conditions": [0.525, 2.0, 1.0, -0.17210125608000001, 0.34657500312, 0.275898474, 0.40795254491999994], "split_indices": [21, 19, 19, 0, 0, 0, 0], "split_type": [0, 0, 0, 0, 0, 0, 0], "sum_hessian": [109.11887101829052, 58.50506602227688, 50.61380499601364, 56.426507994532585, 2.078558027744293, 1.8386928141117096, 48.77511218190193], "tree_param": {"num_deleted": "0", "num_feature": "34", "num_nodes": "7", "size_leaf_vector": "0"}}, {"base_weights": [0.008457739, -0.13905613035, 0.16908413571, -0.16350688605, -0.09207338361, 0.29813990868, -0.14944153094999998, 0.00196484094, -0.17205399108, -0.15160354110000002, 0.19725385472999998, 0.34150297497, -0.17239524885, -0.17020865687999998, 0.07222191222, -0.04361153876999999, -0.17108492925, 0.52553392401, -0.16627368792, -0.021858201419999997, 0.39357311973000003], "categories": [], "categories_nodes": [], "categories_segments": [], "categories_sizes": [], "default_left": [false, false, false, false, false, false, false, false, false, false, false, false, false, false, false, false, false, false, false, false, false], "id": 7, "left_children": [1, 3, 5, 7, 9, 11, 13, -1, -1, 15, 17, 19, -1, -1, -1, -1, -1, -1, -1, -1, -1], "loss_changes": [17.2849081618, 0.9463232628, 17.969881372, 0.5326356477, 3.4951980369, 5.960840087, 0.6713165281, 0.0, 0.0, 0.3242721711, 3.8894139943, 6.0999517499, 0.0, 0.0, 0.0, 0.0, 0.0, 0.0, 0.0, 0.0, 0.0], "parents": [-1, 0, 0, 1, 1, 2, 2, 3, 3, 4, 4, 5, 5, 6, 6, 9, 9, 10, 10, 11, 11], "right_children": [2, 4, 6, 8, 10, 12, 14, -1, -1, 16, 18, 20, -1, -1, -1, -1, -1, -1, -1, -1, -1], "split_conditions": [2.0, 2.0, 0.8999999999999999, 1.0, 1.0, 0.6, 1.0, 0.00196484094, -0.17205399108, 2.0, 1.0, 16.0, -0.17239524885, -0.17020865687999998, 0.07222191222, -0.04361153876999999, -0.17108492925, 0.52553392401, -0.16627368792, -0.021858201419999997, 0.39357311973000003], "split_indices": [27, 15, 4, 31, 13, 24, 13, 0, 0, 0, 19, 33, 0, 0, 0, 0, 0, 0, 0, 0, 0], "split_type": [0, 0, 0, 0, 0, 0, 0, 0, 0, 0, 0, 0, 0, 0, 0, 0, 0, 0, 0, 0, 0], "sum_hessian": [96.34378059208393, 52.08179697394371, 44.26198361814022, 34.091754987835884, 17.990041986107826, 31.504023998975754, 12.757959619164467, 1.6782323718070984, 32.413522616028786, 14.959641382098198, 3.0304006040096283, 28.870802477002144, 2.63322152197361, 11.686309799551964, 1.071649819612503, 2.3357335329055786, 12.62390784919262, 1.568981647491455, 1.4614189565181732, 3.6259376257658005, 25.244864851236343], "tree_param": {"num_deleted": "0", "num_feature": "34", "num_nodes": "21", "size_leaf_vector": "0"}}, {"base_weights": [0.0793538369, -0.16378568495999998, 0.40703044638, -0.17217527624999998, 0.32078590299, 0.30989708150999995, 0.41107229106], "categories": [], "categories_nodes": [], "categories_segments": [], "categories_sizes": [], "default_left": [false, false, false, false, false, false, false], "id": 8, "left_children": [1, 3, 5, -1, -1, -1, -1], "loss_changes": [67.0137021554, 3.0797732664, 0.0011164311, 0.0, 0.0, 0.0, 0.0], "parents": [-1, 0, 0, 1, 1, 2, 2], "right_children": [2, 4, 6, -1, -1, -1, -1], "split_conditions": [0.6, 1.0, 22.0, -0.17217527624999998, 0.32078590299, 0.30989708150999995, 0.41107229106], "split_indices": [24, 28, 33, 0, 0, 0, 0], "split_type": [0, 0, 0, 0, 0, 0, 0], "sum_hessian": [99.3261890411377, 66.72227810323238, 32.60391093790531, 65.6501186043024, 1.0721594989299774, 1.6127847582101822, 30.99112617969513], "tree_param": {"num_deleted": "0", "num_feature": "34", "num_nodes": "7", "size_leaf_vector": "0"}}, {"base_weights": [-0.0958169455, -0.15887060954999999, 0.09095700924, -0.1716490695, -0.11135764578, -0.07193096661, 0.26697350883, 0.35137803680999996, -0.17014099121999998, -0.13354182459, 0.4453665192, 0.40172491374, -0.16863188088, -0.14469380628, 0.04223531117999999, 0.41523102494999997, 0.32789499339], "categories": [], "categories_nodes": [], "categories_segments": [], "categories_sizes": [], "default_left": [false, false, false, false, false, false, false, false, false, false, false, false, false, false, false, false, false], "id": 9, "left_children": [1, 3, 5, -1, 7, 9, 11, -1, -1, 13, -1, 15, -1, -1, -1, -1, -1], "loss_changes": [16.2275699063, 0.3645238136, 16.5237774973, 0.0, 2.6337721406, 9.0673422162, 11.8964688508, 0.0, 0.0, 0.6650577774, 0.0, 0.0854576584, 0.0, 0.0, 0.0, 0.0, 0.0], "parents": [-1, 0, 0, 1, 1, 2, 2, 4, 4, 5, 5, 6, 6, 9, 9, 11, 11], "right_children": [2, 4, 6, -1, 8, 10, 12, -1, -1, 14, -1, 16, -1, -1, -1, -1, -1], "split_conditions": [1.0, 1.2, 0.8999999999999999, -0.1716490695, 1.0, 1.0, 2.0, 0.35137803680999996, -0.17014099121999998, 2.0, 0.4453665192, 2.0, -0.16863188088, -0.14469380628, 0.04223531117999999, 0.41523102494999997, 0.32789499339], "split_indices": [27, 4, 4, 0, 3, 25, 7, 0, 0, 17, 0, 3, 0, 0, 0, 0, 0], "split_type": [0, 0, 0, 0, 0, 0, 0, 0, 0, 0, 0, 0, 0, 0, 0, 0, 0], "sum_hessian": [93.44822356104851, 44.75898677110672, 48.68923678994179, 35.066654190421104, 9.692332580685616, 25.318395599722862, 23.370841190218925, 1.0363730490207672, 8.655959531664848, 22.690151378512383, 2.6282442212104797, 17.855231195688248, 5.515609994530678, 21.353110775351524, 1.3370406031608582, 14.703097492456436, 3.1521337032318115], "tree_param": {"num_deleted": "0", "num_feature": "34", "num_nodes": "17", "size_leaf_vector": "0"}}, {"base_weights": [-0.0699875461, -0.14054337855, 0.39845759937, -0.05756254443, -0.15351491775, 0.41542863980999994, 0.28393097681999996, -0.14119115427, 0.6111002299199999, -0.09348903195, -0.16123727412, 0.41710895372999995, 0.05430423173999999, -0.17297040783, 0.00821459298, -0.17191760520000002, -0.00042677088, -0.14277794114999998, -0.17156331531], "categories": [], "categories_nodes": [], "categories_segments": [], "categories_sizes": [], "default_left": [false, false, false, false, false, false, false, false, false, false, false, false, false, false, false, false, false, false, false], "id": 10, "left_children": [1, 3, 5, 7, 9, -1, 11, 13, -1, 15, 17, -1, -1, -1, -1, -1, -1, -1, -1], "loss_changes": [27.0021996262, 0.791079174, 0.064350479, 6.3649843683, 0.3200343535, 0.0, 1.0004507918, 0.5909343342, 0.0, 0.605868168, 0.0773431354, 0.0, 0.0, 0.0, 0.0, 0.0, 0.0, 0.0, 0.0], "parents": [-1, 0, 0, 1, 1, 2, 2, 3, 3, 4, 4, 6, 6, 7, 7, 9, 9, 10, 10], "right_children": [2, 4, 6, 8, 10, -1, 12, 14, -1, 16, 18, -1, -1, -1, -1, -1, -1, -1, -1], "split_conditions": [2.0, 1.0, 2.0, 1.7999999999999998, 2.0, 0.41542863980999994, 16.0, 0.6749999999999999, 0.6111002299199999, 1.0, 1.0, 0.41710895372999995, 0.05430423173999999, -0.17297040783, 0.00821459298, -0.17191760520000002, -0.00042677088, -0.14277794114999998, -0.17156331531], "split_indices": [14, 2, 27, 20, 0, 0, 33, 6, 0, 17, 15, 0, 0, 0, 0, 0, 0, 0, 0], "split_type": [0, 0, 0, 0, 0, 0, 0, 0, 0, 0, 0, 0, 0, 0, 0, 0, 0, 0, 0], "sum_hessian": [94.19256120920181, 73.35297402739525, 20.839587181806564, 9.98989762365818, 63.36307640373707, 17.921210765838623, 2.9183764159679413, 8.949484154582024, 1.0404134690761566, 7.371901914477348, 55.99117448925972, 1.795426070690155, 1.1229503452777863, 7.366768196225166, 1.5827159583568573, 3.9544989615678787, 3.4174029529094696, 20.617330476641655, 35.373844012618065], "tree_param": {"num_deleted": "0", "num_feature": "34", "num_nodes": "19", "size_leaf_vector": "0"}}, {"base_weights": [-0.3633888758, 0.22382156108999998, -0.16427908428, -0.16769481552, 0.41143068827999996, -0.17191826268, -0.02592239559, -0.16671793554, 0.23000750286], "categories": [], "categories_nodes": [], "categories_segments": [], "categories_sizes": [], "default_left": [false, false, false, false, false, false, false, false, false], "id": 11, "left_children": [1, 3, 5, -1, -1, -1, 7, -1, -1], "loss_changes": [17.7343970594, 8.6966998274, 0.8681312435, 0.0, 0.0, 0.0, 1.6472415105, 0.0, 0.0], "parents": [-1, 0, 0, 1, 1, 2, 2, 6, 6], "right_children": [2, 4, 6, -1, -1, -1, 8, -1, -1], "split_conditions": [16.0, 0.6749999999999999, 0.6749999999999999, -0.16769481552, 0.41143068827999996, -0.17191826268, 2.0, -0.16671793554, 0.23000750286], "split_indices": [33, 6, 6, 0, 0, 0, 8, 0, 0], "split_type": [0, 0, 0, 0, 0, 0, 0, 0, 0], "sum_hessian": [86.52143006026745, 12.276526421308517, 74.24490363895893, 3.98044952750206, 8.296076893806458, 70.33707916736603, 3.907824471592903, 2.5434474796056747, 1.3643769919872284], "tree_param": {"num_deleted": "0", "num_feature": "34", "num_nodes": "9", "size_leaf_vector": "0"}}, {"base_weights": [0.2886765792, -0.14647503543, 0.29273058768, -0.16703930793000002, 0.24362687714999998, 0.19340320085999999, 0.29639175867], "categories": [], "categories_nodes": [], "categories_segments": [], "categories_sizes": [], "default_left": [false, false, false, false, false, false, false], "id": 12, "left_children": [1, 3, 5, -1, -1, -1, -1], "loss_changes": [45.4613195426, 4.3593811496, 0.153439744, 0.0, 0.0, 0.0, 0.0], "parents": [-1, 0, 0, 1, 1, 2, 2], "right_children": [2, 4, 6, -1, -1, -1, -1], "split_conditions": [0.525, 2.0, 1.0, -0.16703930793000002, 0.24362687714999998, 0.19340320085999999, 0.29639175867], "split_indices": [21, 19, 19, 0, 0, 0, 0], "split_type": [0, 0, 0, 0, 0, 0, 0], "sum_hessian": [102.88666716217995, 48.300266087055206, 54.58640107512474, 45.93592831492424, 2.364337772130966, 2.131854146718979, 52.45454692840576], "tree_param": {"num_deleted": "0", "num_feature": "34", "num_nodes": "7", "size_leaf_vector": "0"}}, {"base_weights": [0.0089455855, -0.13047476288999998, 0.13219083582, 0.31770051384, -0.14228632077, 0.21605346732, -0.14006763291, -0.16695144798, -0.09578514518999999, 0.23787304683, -0.20006812542, -0.16463361204, 0.0708630759, -0.14321137467, 0.18246941934, 0.26671808364, -0.16406069658], "categories": [], "categories_nodes": [], "categories_segments": [], "categories_sizes": [], "default_left": [false, false, false, false, false, false, false, false, false, false, false, false, false, false, false, false, false], "id": 13, "left_children": [1, 3, 5, -1, 7, 9, 11, -1, 13, 15, -1, -1, -1, -1, -1, -1, -1], "loss_changes": [11.7188176301, 2.6119802705, 9.9303713232, 0.0, 0.7186184032, 3.5004010191, 0.6217983713, 0.0, 2.2171202571, 3.4826760445, 0.0, 0.0, 0.0, 0.0, 0.0, 0.0, 0.0], "parents": [-1, 0, 0, 1, 1, 2, 2, 4, 4, 5, 5, 6, 6, 8, 8, 9, 9], "right_children": [2, 4, 6, -1, 8, 10, 12, -1, 14, 16, -1, -1, -1, -1, -1, -1, -1], "split_conditions": [2.0, 1.0, 0.8999999999999999, 0.31770051384, 2.0, 1.0, 1.0, -0.16695144798, 2.0, 0.6, -0.20006812542, -0.16463361204, 0.0708630759, -0.14321137467, 0.18246941934, 0.26671808364, -0.16406069658], "split_indices": [27, 16, 4, 0, 15, 25, 13, 0, 13, 24, 0, 0, 0, 0, 0, 0, 0], "split_type": [0, 0, 0, 0, 0, 0, 0, 0, 0, 0, 0, 0, 0, 0, 0, 0, 0], "sum_hessian": [87.87316013872623, 43.32545533776283, 44.5477048009634, 1.0460130423307419, 42.27944229543209, 34.07298918068409, 10.474715620279312, 27.45679719746113, 14.822645097970963, 32.41606928408146, 1.6569198966026306, 9.401698678731918, 1.0730169415473938, 12.705609455704689, 2.1170356422662735, 30.27687118947506, 2.1391980946063995], "tree_param": {"num_deleted": "0", "num_feature": "34", "num_nodes": "17", "size_leaf_vector": "0"}}, {"base_weights": [0.0650994286, -0.15769882203, 0.29379860394, -0.16703130347999998, 0.22755240174], "categories": [], "categories_nodes": [], "categories_segments": [], "categories_sizes": [], "default_left": [false, false, false, false, false], "id": 14, "left_children": [1, 3, -1, -1, -1], "loss_changes": [41.5668639239, 2.2244248247, 0.0, 0.0, 0.0], "parents": [-1, 0, 0, 1, 1], "right_children": [2, 4, -1, -1, -1], "split_conditions": [0.6, 1.0, 0.29379860394, -0.16703130347999998, 0.22755240174], "split_indices": [24, 28, 0, 0, 0], "split_type": [0, 0, 0, 0, 0], "sum_hessian": [89.71643617749214, 54.52539186179638, 35.19104431569576, 53.29109047353268, 1.2343013882637024], "tree_param": {"num_deleted": "0", "num_feature": "34", "num_nodes": "5", "size_leaf_vector": "0"}}, {"base_weights": [-0.0822681071, -0.15175739073, 0.07632856136999999, -0.16643114807999998, -0.09958144473000001, -0.060797161679999996, 0.20408403474, 0.24939767367, -0.16433119665, -0.1225440795, 0.3384084711, 0.28868463447, -0.16277782602, -0.13490979681, 0.04342500033, 0.29902218326999996, 0.23352937989], "categories": [], "categories_nodes": [], "categories_segments": [], "categories_sizes": [], "default_left": [false, false, false, false, false, false, false, false, false, false, false, false, false, false, false, false, false], "id": 15, "left_children": [1, 3, 5, -1, 7, 9, 11, -1, -1, 13, -1, 15, -1, -1, -1, -1, -1], "loss_changes": [11.8260499566, 0.3736868624, 9.4415981549, 0.0, 1.7590982539, 6.161839298, 6.3395559139, 0.0, 0.0, 0.5995845355, 0.0, 0.0780322826, 0.0, 0.0, 0.0, 0.0, 0.0], "parents": [-1, 0, 0, 1, 1, 2, 2, 4, 4, 5, 5, 6, 6, 9, 9, 11, 11], "right_children": [2, 4, 6, -1, 8, 10, 12, -1, -1, 14, -1, 16, -1, -1, -1, -1, -1], "split_conditions": [1.0, 1.2, 0.8999999999999999, -0.16643114807999998, 1.0, 1.0, 2.0, 0.24939767367, -0.16433119665, 2.0, 0.3384084711, 2.0, -0.16277782602, -0.13490979681, 0.04342500033, 0.29902218326999996, 0.23352937989], "split_indices": [27, 4, 4, 0, 3, 25, 7, 0, 0, 17, 0, 3, 0, 0, 0, 0, 0], "split_type": [0, 0, 0, 0, 0, 0, 0, 0, 0, 0, 0, 0, 0, 0, 0, 0, 0], "sum_hessian": [82.59068495035172, 36.55344419181347, 46.037240758538246, 28.35891431570053, 8.194529876112938, 22.229608580470085, 23.80763217806816, 1.2378371953964233, 6.956692680716515, 19.311859980225563, 2.917748600244522, 19.363581091165543, 4.444051086902618, 17.990193784236908, 1.321666195988655, 15.93482792377472, 3.4287531673908234], "tree_param": {"num_deleted": "0", "num_feature": "34", "num_nodes": "17", "size_leaf_vector": "0"}}, {"base_weights": [-0.0587878763, -0.13090596609, 0.28951555221, -0.048282597659999996, -0.1448830518, 0.23872285671, 0.29946226014, -0.13068829044, 0.38138698086, -0.08100181971, -0.15385137783, 0.28977954378, 0.14653764656999999, -0.16670052840000002, 0.01184403297, -0.16641152184, 0.00853889169, -0.13203090255, -0.16636031867999998], "categories": [], "categories_nodes": [], "categories_segments": [], "categories_sizes": [], "default_left": [false, false, false, false, false, false, false, false, false, false, false, false, false, false, false, false, false, false, false], "id": 16, "left_children": [1, 3, 5, 7, 9, 11, -1, 13, -1, 15, 17, -1, -1, -1, -1, -1, -1, -1, -1], "loss_changes": [16.9090980605, 0.7010379682, 0.0401418841, 3.6064451066, 0.3319817045, 0.1723980467, 0.0, 0.5335574777, 0.0, 0.5678954105, 0.0978810656, 0.0, 0.0, 0.0, 0.0, 0.0, 0.0, 0.0, 0.0], "parents": [-1, 0, 0, 1, 1, 2, 2, 3, 3, 4, 4, 5, 5, 7, 7, 9, 9, 10, 10], "right_children": [2, 4, 6, 8, 10, 12, -1, 14, -1, 16, 18, -1, -1, -1, -1, -1, -1, -1, -1], "split_conditions": [2.0, 1.0, 1.7999999999999998, 1.7999999999999998, 2.0, 2.0, 0.29946226014, 0.6749999999999999, 0.38138698086, 1.0, 1.0, 0.28977954378, 0.14653764656999999, -0.16670052840000002, 0.01184403297, -0.16641152184, 0.00853889169, -0.13203090255, -0.16636031867999998], "split_indices": [14, 2, 20, 20, 0, 0, 0, 6, 0, 17, 15, 0, 0, 0, 0, 0, 0, 0, 0], "split_type": [0, 0, 0, 0, 0, 0, 0, 0, 0, 0, 0, 0, 0, 0, 0, 0, 0, 0, 0], "sum_hessian": [83.77620604634285, 61.247214049100876, 22.528991997241974, 8.926288560032845, 52.32092548906803, 4.098760366439819, 18.430231630802155, 7.5482121258974075, 1.378076434135437, 6.564598932862282, 45.75632655620575, 2.4998667240142822, 1.598893642425537, 6.012209966778755, 1.5360021591186523, 3.315863996744156, 3.248734936118126, 17.09371241927147, 28.66261413693428], "tree_param": {"num_deleted": "0", "num_feature": "34", "num_nodes": "19", "size_leaf_vector": "0"}}, {"base_weights": [-0.3376749789, 0.17623846733999998, -0.15784238835, -0.16271280744, 0.30111995658, -0.16674980505, -0.016074712709999998, 0.34540960656, -0.16735540407000002], "categories": [], "categories_nodes": [], "categories_segments": [], "categories_sizes": [], "default_left": [false, false, false, false, false, false, false, false, false], "id": 17, "left_children": [1, 3, 5, -1, -1, -1, 7, -1, -1], "loss_changes": [12.7406967911, 5.1269287577, 0.8479778454, 0.0, 0.0, 0.0, 2.3099926788, 0.0, 0.0], "parents": [-1, 0, 0, 1, 1, 2, 2, 6, 6], "right_children": [2, 4, 6, -1, -1, -1, 8, -1, -1], "split_conditions": [16.0, 0.6749999999999999, 0.6749999999999999, -0.16271280744, 0.30111995658, -0.16674980505, 1.0, 0.34540960656, -0.16735540407000002], "split_indices": [33, 6, 6, 0, 0, 0, 17, 0, 0], "split_type": [0, 0, 0, 0, 0, 0, 0, 0, 0], "sum_hessian": [72.84025405347347, 12.29166641831398, 60.54858763515949, 3.3012296557426453, 8.990436762571335, 56.9525738209486, 3.5960138142108917, 1.0230701267719269, 2.572943687438965], "tree_param": {"num_deleted": "0", "num_feature": "34", "num_nodes": "9", "size_leaf_vector": "0"}}, {"base_weights": [0.2502947649, -0.14485080018, 0.23749754451, -0.020517016109999998, -0.16426411644, 0.13655899206, 0.24502572924, -0.16096400766, 0.26149380614999995, 0.23699488784999997, -0.039050415420000005], "categories": [], "categories_nodes": [], "categories_segments": [], "categories_sizes": [], "default_left": [false, false, false, false, false, false, false, false, false, false, false], "id": 18, "left_children": [1, 3, 5, 7, -1, 9, -1, -1, -1, -1, -1], "loss_changes": [30.2124432205, 0.997528872, 0.4069895276, 1.6398093743, 0.0, 0.7706214726, 0.0, 0.0, 0.0, 0.0, 0.0], "parents": [-1, 0, 0, 1, 1, 2, 2, 3, 3, 5, 5], "right_children": [2, 4, 6, 8, -1, 10, -1, -1, -1, -1, -1], "split_conditions": [1.0, 1.0, 16.0, 1.0, -0.16426411644, 1.0, 0.24502572924, -0.16096400766, 0.26149380614999995, 0.23699488784999997, -0.039050415420000005], "split_indices": [19, 15, 33, 13, 0, 15, 0, 0, 0, 0, 0], "split_type": [0, 0, 0, 0, 0, 0, 0, 0, 0, 0, 0], "sum_hessian": [91.35564055293798, 38.80949080735445, 52.546149745583534, 5.269072912633419, 33.54041789472103, 3.779830113053322, 48.76631963253021, 3.5460115000605583, 1.7230614125728607, 2.3823451101779938, 1.397485002875328], "tree_param": {"num_deleted": "0", "num_feature": "34", "num_nodes": "11", "size_leaf_vector": "0"}}, {"base_weights": [0.0092809046, -0.12280352916, 0.10919411553000001, 0.23132130299999998, -0.1352950251, -0.00055741035, 0.22866247160999997, -0.16308460854, -0.08566935627, 0.08171654529, -0.16025693376, 0.04459344156, 0.24960721179, -0.13418263803, 0.14078017227, -0.16907291753999998, 0.13975964304, 0.21962512653, 0.26459105705999997], "categories": [], "categories_nodes": [], "categories_segments": [], "categories_sizes": [], "default_left": [false, false, false, false, false, false, false, false, false, false, false, false, false, false, false, false, false, false, false], "id": 19, "left_children": [1, 3, 5, -1, 7, 9, 11, -1, 13, 15, -1, -1, 17, -1, -1, -1, -1, -1, -1], "loss_changes": [8.0554972189, 1.8140893671, 6.0620473917, 0.0, 0.6983588526, 2.9030608474, 0.7669983777, 0.0, 1.5660752261, 2.4003667831, 0.0, 0.0, 0.0260695026, 0.0, 0.0, 0.0, 0.0, 0.0, 0.0], "parents": [-1, 0, 0, 1, 1, 2, 2, 4, 4, 5, 5, 6, 6, 8, 8, 9, 9, 12, 12], "right_children": [2, 4, 6, -1, 8, 10, 12, -1, 14, 16, -1, -1, 18, -1, -1, -1, -1, -1, -1], "split_conditions": [2.0, 1.0, 1.0, 0.23132130299999998, 2.0, 0.8999999999999999, 2.0, -0.16308460854, 2.0, 16.0, -0.16025693376, 0.04459344156, 1.0, -0.13418263803, 0.14078017227, -0.16907291753999998, 0.13975964304, 0.21962512653, 0.26459105705999997], "split_indices": [27, 16, 13, 0, 15, 4, 0, 0, 13, 33, 0, 0, 2, 0, 0, 0, 0, 0, 0], "split_type": [0, 0, 0, 0, 0, 0, 0, 0, 0, 0, 0, 0, 0, 0, 0, 0, 0, 0, 0], "sum_hessian": [77.92150896042585, 35.733019046485424, 42.18848991394043, 1.1578204482793808, 34.57519859820604, 22.040324717760086, 20.148165196180344, 22.017256431281567, 12.557942166924477, 14.578571438789368, 7.461753278970718, 2.0903566777706146, 18.05780851840973, 10.375827804207802, 2.182114362716675, 2.703997477889061, 11.874573960900307, 6.539090871810913, 11.518717646598816], "tree_param": {"num_deleted": "0", "num_feature": "34", "num_nodes": "19", "size_leaf_vector": "0"}}, {"base_weights": [0.0543948902, -0.15284636381999997, 0.23998087904999998, -0.16320639539999998, 0.1774151997, 0.17177488674, 0.24312396935999997], "categories": [], "categories_nodes": [], "categories_segments": [], "categories_sizes": [], "default_left": [false, false, false, false, false, false, false], "id": 20, "left_children": [1, 3, 5, -1, -1, -1, -1], "loss_changes": [28.1856208822, 1.7139890631, 0.0332793084, 0.0, 0.0, 0.0, 0.0], "parents": [-1, 0, 0, 1, 1, 2, 2], "right_children": [2, 4, 6, -1, -1, -1, -1], "split_conditions": [0.6, 1.0, 22.0, -0.16320639539999998, 0.1774151997, 0.17177488674, 0.24312396935999997], "split_indices": [24, 28, 33, 0, 0, 0, 0], "split_type": [0, 0, 0, 0, 0, 0, 0], "sum_hessian": [77.49084063619375, 44.13866462558508, 33.35217601060867, 42.845228008925915, 1.2934366166591644, 1.7143976390361786, 31.637778371572495], "tree_param": {"num_deleted": "0", "num_feature": "34", "num_nodes": "7", "size_leaf_vector": "0"}}, {"base_weights": [-0.0744817144, -0.1457789673, 0.06617939778, -0.16258766199, -0.08839218287999999, -0.053448733049999995, 0.17074804122, 0.16499683785, -0.16234236654, -0.11120530994999998, 0.26151737826, 0.23405574899999998, -0.15798174648, 0.02077761447, -0.14346320903999998, 0.24474146871, 0.18055886571], "categories": [], "categories_nodes": [], "categories_segments": [], "categories_sizes": [], "default_left": [false, false, false, false, false, false, false, false, false, false, false, false, false, false, false, false, false], "id": 21, "left_children": [1, 3, 5, -1, 7, 9, 11, -1, -1, 13, -1, 15, -1, -1, -1, -1, -1], "loss_changes": [8.6873083532, 0.378557079, 6.0070527097, 0.0, 1.372291416, 3.9493727148, 3.9152022821, 0.0, 0.0, 0.6903035052, 0.0, 0.1011911385, 0.0, 0.0, 0.0, 0.0, 0.0], "parents": [-1, 0, 0, 1, 1, 2, 2, 4, 4, 5, 5, 6, 6, 9, 9, 11, 11], "right_children": [2, 4, 6, -1, 8, 10, 12, -1, -1, 14, -1, 16, -1, -1, -1, -1, -1], "split_conditions": [1.0, 1.2, 0.8999999999999999, -0.16258766199, 2.0, 1.0, 2.0, 0.16499683785, -0.16234236654, 1.0, 0.26151737826, 2.0, -0.15798174648, 0.02077761447, -0.14346320903999998, 0.24474146871, 0.18055886571], "split_indices": [27, 4, 4, 0, 2, 25, 7, 0, 0, 3, 0, 3, 0, 0, 0, 0, 0], "split_type": [0, 0, 0, 0, 0, 0, 0, 0, 0, 0, 0, 0, 0, 0, 0, 0, 0], "sum_hessian": [70.84911321848631, 29.562952913343906, 41.2861603051424, 22.723793119192123, 6.839159794151783, 19.279268316924572, 22.00689198821783, 1.5172409862279892, 5.321918807923794, 16.346448563039303, 2.932819753885269, 18.477284491062164, 3.5296074971556664, 3.217532068490982, 13.12891649454832, 15.10304394364357, 3.3742405474185944], "tree_param": {"num_deleted": "0", "num_feature": "34", "num_nodes": "17", "size_leaf_vector": "0"}}, {"base_weights": [-0.048394735, -0.12197464296, 0.23767167753000001, -0.09334710897, -0.16380122898000002, 0.18745274829, 0.2481884856, -0.026822757029999998, -0.16191834, 0.23606350385999997, 0.10930162161, 0.059711493899999996, -0.16237229373], "categories": [], "categories_nodes": [], "categories_segments": [], "categories_sizes": [], "default_left": [false, false, false, false, false, false, false, false, false, false, false, false, false], "id": 22, "left_children": [1, 3, 5, 7, -1, 9, -1, 11, -1, -1, -1, -1, -1], "loss_changes": [11.414788916, 0.6358670221, 0.064882331, 1.4032529986, 0.0, 0.1469831716, 0.0, 1.5635886474, 0.0, 0.0, 0.0, 0.0, 0.0], "parents": [-1, 0, 0, 1, 1, 2, 2, 3, 3, 5, 5, 7, 7], "right_children": [2, 4, 6, 8, -1, 10, -1, 12, -1, -1, -1, -1, -1], "split_conditions": [2.0, 1.0, 1.7999999999999998, 0.8999999999999999, -0.16380122898000002, 2.0, 0.2481884856, 2.0, -0.16191834, 0.23606350385999997, 0.10930162161, 0.059711493899999996, -0.16237229373], "split_indices": [14, 13, 20, 4, 0, 0, 0, 27, 0, 0, 0, 0, 0], "split_type": [0, 0, 0, 0, 0, 0, 0, 0, 0, 0, 0, 0, 0], "sum_hessian": [72.32078736275434, 50.748768888413906, 21.57201847434044, 30.31994603574276, 20.428822852671146, 4.061294794082642, 17.510723680257797, 15.460279136896133, 14.859666898846626, 2.3792919516563416, 1.6820028424263, 9.470378279685974, 5.989900857210159], "tree_param": {"num_deleted": "0", "num_feature": "34", "num_nodes": "13", "size_leaf_vector": "0"}}, {"base_weights": [-0.3151959826, 0.15548685453, -0.15265086723, -0.15796392009, 0.25238212401, -0.16293758919, -0.00816352044, -0.16125128274, 0.22607361692999997], "categories": [], "categories_nodes": [], "categories_segments": [], "categories_sizes": [], "default_left": [false, false, false, false, false, false, false, false, false], "id": 23, "left_children": [1, 3, 5, -1, -1, -1, 7, -1, -1], "loss_changes": [9.7723238409, 3.4453707099, 0.8091396861, 0.0, 0.0, 0.0, 1.6910383362, 0.0, 0.0], "parents": [-1, 0, 0, 1, 1, 2, 2, 6, 6], "right_children": [2, 4, 6, -1, -1, -1, 8, -1, -1], "split_conditions": [16.0, 0.6749999999999999, 0.6749999999999999, -0.15796392009, 0.25238212401, -0.16293758919, 1.0, -0.16125128274, 0.22607361692999997], "split_indices": [33, 6, 6, 0, 0, 0, 27, 0, 0], "split_type": [0, 0, 0, 0, 0, 0, 0, 0, 0], "sum_hessian": [60.32694114744663, 11.341609001159668, 48.985332146286964, 2.6632190346717834, 8.678389966487885, 45.71770779788494, 3.2676243484020233, 1.994959682226181, 1.2726646661758423], "tree_param": {"num_deleted": "0", "num_feature": "34", "num_nodes": "9", "size_leaf_vector": "0"}}, {"base_weights": [0.2223701969, -0.1378043343, 0.20894572932, -0.1604873331, 0.15512706558, 0.11778088194, 0.21331429077], "categories": [], "categories_nodes": [], "categories_segments": [], "categories_sizes": [], "default_left": [false, false, false, false, false, false, false], "id": 24, "left_children": [1, 3, 5, -1, -1, -1, -1], "loss_changes": [21.2971772355, 2.3973830147, 0.1729440384, 0.0, 0.0, 0.0, 0.0], "parents": [-1, 0, 0, 1, 1, 2, 2], "right_children": [2, 4, 6, -1, -1, -1, -1], "split_conditions": [0.525, 2.0, 1.0, -0.1604873331, 0.15512706558, 0.11778088194, 0.21331429077], "split_indices": [21, 19, 19, 0, 0, 0, 0], "split_type": [0, 0, 0, 0, 0, 0, 0], "sum_hessian": [78.00310488790274, 31.99765508621931, 46.005449801683426, 29.739968590438366, 2.257686495780945, 2.2316023409366608, 43.773847460746765], "tree_param": {"num_deleted": "0", "num_feature": "34", "num_nodes": "7", "size_leaf_vector": "0"}}, {"base_weights": [0.0099101398, -0.11572844247, 0.09381398466, 0.18132916236, -0.12873026193, 0.00015461484, 0.19425221379, -0.16006661523000001, -0.07600917104999999, 0.06661343889, -0.15672944304, 0.031031520899999998, 0.21488503653, -0.12477839577, 0.1125911607, -0.16126550390999997, 0.10934504504999999, 0.15354618440999998, 0.22135767186000002], "categories": [], "categories_nodes": [], "categories_segments": [], "categories_sizes": [], "default_left": [false, false, false, false, false, false, false, false, false, false, false, false, false, false, false, false, false, false, false], "id": 25, "left_children": [1, 3, 5, -1, 7, 9, 11, -1, 13, 15, -1, -1, 17, -1, -1, -1, -1, -1, -1], "loss_changes": [5.6403366158, 1.3130624775, 3.9388703794, 0.0, 0.6701866266, 2.0590669059, 0.6057226494, 0.0, 1.1074393028, 1.5412622733, 0.0, 0.0, 0.0355527393, 0.0, 0.0, 0.0, 0.0, 0.0, 0.0], "parents": [-1, 0, 0, 1, 1, 2, 2, 4, 4, 5, 5, 6, 6, 8, 8, 9, 9, 12, 12], "right_children": [2, 4, 6, -1, 8, 10, 12, -1, 14, 16, -1, -1, 18, -1, -1, -1, -1, -1, -1], "split_conditions": [2.0, 1.0, 1.0, 0.18132916236, 2.0, 0.8999999999999999, 2.0, -0.16006661523000001, 2.0, 16.0, -0.15672944304, 0.031031520899999998, 2.0, -0.12477839577, 0.1125911607, -0.16126550390999997, 0.10934504504999999, 0.15354618440999998, 0.22135767186000002], "split_indices": [27, 16, 13, 0, 15, 4, 0, 0, 13, 33, 0, 0, 1, 0, 0, 0, 0, 0, 0], "split_type": [0, 0, 0, 0, 0, 0, 0, 0, 0, 0, 0, 0, 0, 0, 0, 0, 0, 0, 0], "sum_hessian": [67.42326085269451, 29.217490278184414, 38.2057705745101, 1.1708974838256836, 28.04659279435873, 19.821879528462887, 18.38389104604721, 17.46320542693138, 10.583387367427349, 13.964017704129219, 5.857861824333668, 2.091219186782837, 16.292671859264374, 8.43584405630827, 2.1475433111190796, 2.1612295508384705, 11.802788153290749, 1.7911184430122375, 14.501553416252136], "tree_param": {"num_deleted": "0", "num_feature": "34", "num_nodes": "19", "size_leaf_vector": "0"}}, {"base_weights": [0.0492692109, -0.14826966792, 0.21376478726999998, -0.16061405493, -0.07855840673999999, -0.15925810911, 0.07381046874], "categories": [], "categories_nodes": [], "categories_segments": [], "categories_sizes": [], "default_left": [false, false, false, false, false, false, false], "id": 26, "left_children": [1, 3, -1, -1, 5, -1, -1], "loss_changes": [20.2843212154, 0.392650549, 0.0, 0.0, 0.8376948832, 0.0, 0.0], "parents": [-1, 0, 0, 1, 1, 4, 4], "right_children": [2, 4, -1, -1, 6, -1, -1], "split_conditions": [0.6, 1.2, 0.21376478726999998, -0.16061405493, 2.0, -0.15925810911, 0.07381046874], "split_indices": [11, 4, 0, 0, 17, 0, 0], "split_type": [0, 0, 0, 0, 0, 0, 0], "sum_hessian": [65.16177456825972, 35.828699074685574, 29.333075493574142, 30.327875956892967, 5.500823117792606, 3.593214139342308, 1.9076089784502983], "tree_param": {"num_deleted": "0", "num_feature": "34", "num_nodes": "7", "size_leaf_vector": "0"}}, {"base_weights": [-0.0655912827, -0.14006558418, 0.059987352029999996, -0.15962350929, -0.0771618216, -0.043636173480000005, 0.15006684054, 0.13578996774, -0.15798380382, -0.09964866258, 0.23313093162, 0.20198216622, -0.15390550943999998, 0.031491116789999996, -0.13613473248, 0.13967576738999998, 0.21497536152], "categories": [], "categories_nodes": [], "categories_segments": [], "categories_sizes": [], "default_left": [false, false, false, false, false, false, false, false, false, false, false, false, false, false, false, false, false], "id": 27, "left_children": [1, 3, 5, -1, 7, 9, 11, -1, -1, 13, -1, 15, -1, -1, -1, -1, -1], "loss_changes": [6.4786586011, 0.384101733, 3.8895897868, 0.0, 1.0467202731, 2.9269316941, 2.5931178711, 0.0, 0.0, 0.6543328867, 0.0, 0.1153709157, 0.0, 0.0, 0.0, 0.0, 0.0], "parents": [-1, 0, 0, 1, 1, 2, 2, 4, 4, 5, 5, 6, 6, 9, 9, 11, 11], "right_children": [2, 4, 6, -1, 8, 10, 12, -1, -1, 14, -1, 16, -1, -1, -1, -1, -1], "split_conditions": [1.0, 1.2, 0.8999999999999999, -0.15962350929, 2.0, 1.0, 2.0, 0.13578996774, -0.15798380382, 1.0, 0.23313093162, 22.0, -0.15390550943999998, 0.031491116789999996, -0.13613473248, 0.13967576738999998, 0.21497536152], "split_indices": [27, 4, 4, 0, 2, 25, 7, 0, 0, 3, 0, 33, 0, 0, 0, 0, 0], "split_type": [0, 0, 0, 0, 0, 0, 0, 0, 0, 0, 0, 0, 0, 0, 0, 0, 0], "sum_hessian": [59.69070688635111, 23.739738397300243, 35.950968489050865, 17.991954021155834, 5.747784376144409, 16.74258504062891, 19.208383448421955, 1.5625987499952316, 4.1851856261491776, 13.977745987474918, 2.7648390531539917, 16.435007095336914, 2.773376353085041, 3.045428343117237, 10.932317644357681, 3.03866383433342, 13.396343261003494], "tree_param": {"num_deleted": "0", "num_feature": "34", "num_nodes": "17", "size_leaf_vector": "0"}}, {"base_weights": [-0.0425005747, -0.11284369553999998, 0.20516214411, -0.08281179792, -0.16027368747, 0.1538541546, 0.21668816274, 0.02783487345, -0.13873362314999999, 0.20475697028999998, 0.08311861704, 0.16260890331, -0.15691396998, -0.1610527962, 0.05173940607], "categories": [], "categories_nodes": [], "categories_segments": [], "categories_sizes": [], "default_left": [false, false, false, false, false, false, false, false, false, false, false, false, false, false, false], "id": 28, "left_children": [1, 3, 5, 7, -1, 9, -1, 11, 13, -1, -1, -1, -1, -1, -1], "loss_changes": [7.7527632078, 0.6295263118, 0.0817254506, 1.3940865667, 0.0, 0.1373141113, 0.0, 2.2616709809, 0.8837985139, 0.0, 0.0, 0.0, 0.0, 0.0, 0.0], "parents": [-1, 0, 0, 1, 1, 2, 2, 3, 3, 5, 5, 7, 7, 8, 8], "right_children": [2, 4, 6, 8, -1, 10, -1, 12, 14, -1, -1, -1, -1, -1, -1], "split_conditions": [2.0, 1.0, 1.7999999999999998, 2.0, -0.16027368747, 2.0, 0.21668816274, 1.0, 1.7999999999999998, 0.20475697028999998, 0.08311861704, 0.16260890331, -0.15691396998, -0.1610527962, 0.05173940607], "split_indices": [14, 13, 20, 15, 0, 0, 0, 8, 20, 0, 0, 0, 0, 0, 0], "split_type": [0, 0, 0, 0, 0, 0, 0, 0, 0, 0, 0, 0, 0, 0, 0], "sum_hessian": [61.44695744663477, 42.139338441193104, 19.307619005441666, 25.97009540349245, 16.169243037700653, 3.8049139380455017, 15.502705067396164, 8.735768534243107, 17.234326869249344, 2.102465897798538, 1.7024480402469635, 5.0579700618982315, 3.6777984723448753, 15.440492808818817, 1.7938340604305267], "tree_param": {"num_deleted": "0", "num_feature": "34", "num_nodes": "15", "size_leaf_vector": "0"}}, {"base_weights": [-0.2976029956, 0.13916089143, -0.14811374598, -0.15410411726999998, 0.22110400551, -0.16005179888999999, -0.00294317079, 0.23696233068, -0.15747161811], "categories": [], "categories_nodes": [], "categories_segments": [], "categories_sizes": [], "default_left": [false, false, false, false, false, false, false, false, false], "id": 29, "left_children": [1, 3, 5, -1, -1, -1, 7, -1, -1], "loss_changes": [7.4009692257, 2.43215068, 0.7575315878, 0.0, 0.0, 0.0, 1.3155942118, 0.0, 0.0], "parents": [-1, 0, 0, 1, 1, 2, 2, 6, 6], "right_children": [2, 4, 6, -1, -1, -1, 8, -1, -1], "split_conditions": [16.0, 0.6749999999999999, 0.6749999999999999, -0.15410411726999998, 0.22110400551, -0.16005179888999999, 1.0, 0.23696233068, -0.15747161811], "split_indices": [33, 6, 6, 0, 0, 0, 17, 0, 0], "split_type": [0, 0, 0, 0, 0, 0, 0, 0, 0], "sum_hessian": [49.3445143327117, 10.077622927725315, 39.26689140498638, 2.181657738983631, 7.895965188741684, 36.27368628978729, 2.993205115199089, 1.1517567187547684, 1.8414483964443207], "tree_param": {"num_deleted": "0", "num_feature": "34", "num_nodes": "9", "size_leaf_vector": "0"}}, {"base_weights": [0.2017201384, -0.1366014723, 0.18819059778, -0.01291782876, -0.15955070574, 0.09781022534999999, 0.19516791239999998, -0.15502062108, 0.18448623789, -0.056030667119999995, 0.18799907457], "categories": [], "categories_nodes": [], "categories_segments": [], "categories_sizes": [], "default_left": [false, false, false, false, false, false, false, false, false, false, false], "id": 30, "left_children": [1, 3, 5, 7, -1, 9, -1, -1, -1, -1, -1], "loss_changes": [15.3432589647, 0.7691036236, 0.2549812638, 0.9269997236, 0.0, 0.4784869031, 0.0, 0.0, 0.0, 0.0, 0.0], "parents": [-1, 0, 0, 1, 1, 2, 2, 3, 3, 5, 5], "right_children": [2, 4, 6, 8, -1, 10, -1, -1, -1, -1, -1], "split_conditions": [1.0, 1.0, 16.0, 1.0, -0.15955070574, 1.0, 0.19516791239999998, -0.15502062108, 0.18448623789, -0.056030667119999995, 0.18799907457], "split_indices": [19, 15, 33, 13, 0, 13, 0, 0, 0, 0, 0], "split_type": [0, 0, 0, 0, 0, 0, 0, 0, 0, 0, 0], "sum_hessian": [64.83548833429813, 25.483841121196747, 39.35164721310139, 4.012888088822365, 21.470953032374382, 2.9278384298086166, 36.42380878329277, 2.345751643180847, 1.6671364456415176, 1.0960721224546432, 1.8317663073539734], "tree_param": {"num_deleted": "0", "num_feature": "34", "num_nodes": "11", "size_leaf_vector": "0"}}, {"base_weights": [0.0116731659, -0.12282505199999999, 0.07291026561, 0.14920272717, -0.1393231422, -0.00634654908, 0.16936422531, -0.15739740518999998, -0.08845108968, 0.04488560349, -0.15426187869, 0.01269699048, 0.19207100018999998, 0.10223458665, -0.15779415689999998, -0.07531199693999999, 0.12199701516, 0.11290173408, 0.20218426058999997], "categories": [], "categories_nodes": [], "categories_segments": [], "categories_sizes": [], "default_left": [false, false, false, false, false, false, false, false, false, false, false, false, false, false, false, false, false, false, false], "id": 31, "left_children": [1, 3, 5, -1, 7, 9, 11, -1, 13, 15, -1, -1, 17, -1, -1, -1, -1, -1, -1], "loss_changes": [3.9849304885, 1.0013202062, 3.1130952376, 0.0, 0.2222669952, 1.5075731975, 0.5582334485, 0.0, 0.7162905456, 1.5906723353, 0.0, 0.0, 0.106120035, 0.0, 0.0, 0.0, 0.0, 0.0, 0.0], "parents": [-1, 0, 0, 1, 1, 2, 2, 4, 4, 5, 5, 6, 6, 8, 8, 9, 9, 12, 12], "right_children": [2, 4, 6, -1, 8, 10, 12, -1, 14, 16, -1, -1, 18, -1, -1, -1, -1, -1, -1], "split_conditions": [1.0, 1.0, 1.0, 0.14920272717, 2.0, 0.8999999999999999, 2.0, -0.15739740518999998, 0.525, 32.0, -0.15426187869, 0.01269699048, 2.0, 0.10223458665, -0.15779415689999998, -0.07531199693999999, 0.12199701516, 0.11290173408, 0.20218426058999997], "split_indices": [27, 16, 13, 0, 13, 4, 0, 0, 21, 33, 0, 0, 1, 0, 0, 0, 0, 0, 0], "split_type": [0, 0, 0, 0, 0, 0, 0, 0, 0, 0, 0, 0, 0, 0, 0, 0, 0, 0, 0], "sum_hessian": [57.55741065740585, 20.382735796272755, 37.1746748611331, 1.119503602385521, 19.263232193887234, 20.45779687911272, 16.716877982020378, 14.058874897658825, 5.204357296228409, 15.246613755822182, 5.211183123290539, 2.135910116136074, 14.580967865884304, 1.3752208352088928, 3.829136461019516, 5.959524296224117, 9.287089459598064, 1.7894052788615227, 12.791562587022781], "tree_param": {"num_deleted": "0", "num_feature": "34", "num_nodes": "19", "size_leaf_vector": "0"}}, {"base_weights": [0.0454760895, -0.14531009991, 0.19265913777, -0.15824365689, 0.13479713498999998, 0.1277600514, 0.19577765717999998], "categories": [], "categories_nodes": [], "categories_segments": [], "categories_sizes": [], "default_left": [false, false, false, false, false, false, false], "id": 32, "left_children": [1, 3, 5, -1, -1, -1, -1], "loss_changes": [14.9344894796, 1.1750003814, 0.0293007056, 0.0, 0.0, 0.0, 0.0], "parents": [-1, 0, 0, 1, 1, 2, 2], "right_children": [2, 4, 6, -1, -1, -1, -1], "split_conditions": [0.6, 1.0, 22.0, -0.15824365689, 0.13479713498999998, 0.1277600514, 0.19577765717999998], "split_indices": [24, 28, 33, 0, 0, 0, 0], "split_type": [0, 0, 0, 0, 0, 0, 0], "sum_hessian": [53.78980867937207, 28.501480791717768, 25.288327887654305, 27.285134200006723, 1.2163465917110443, 1.3518558591604233, 23.93647202849388], "tree_param": {"num_deleted": "0", "num_feature": "34", "num_nodes": "7", "size_leaf_vector": "0"}}, {"base_weights": [-0.0567494846, -0.13513646817, 0.055983575699999996, -0.15730254828, -0.06794994453, -0.03382221972, 0.13634763774, 0.16793097561, -0.15371149047000002, -0.08776628703, 0.21446782295999997, 0.18091958271, -0.15016405779, 0.03981906348, -0.12872262309, 0.19273013193000002, 0.09514876167], "categories": [], "categories_nodes": [], "categories_segments": [], "categories_sizes": [], "default_left": [false, false, false, false, false, false, false, false, false, false, false, false, false, false, false, false, false], "id": 33, "left_children": [1, 3, 5, -1, 7, 9, 11, -1, -1, 13, -1, 15, -1, -1, -1, -1, -1], "loss_changes": [4.9177651561, 0.3669367802, 2.5531156485, 0.0, 0.8445829352, 2.2014981057, 1.774100875, 0.0, 0.0, 0.6047965044, 0.0, 0.1389438307, 0.0, 0.0, 0.0, 0.0, 0.0], "parents": [-1, 0, 0, 1, 1, 2, 2, 4, 4, 5, 5, 6, 6, 9, 9, 11, 11], "right_children": [2, 4, 6, -1, 8, 10, 12, -1, -1, 14, -1, 16, -1, -1, -1, -1, -1], "split_conditions": [1.0, 1.2, 0.8999999999999999, -0.15730254828, 1.0, 1.0, 2.0, 0.16793097561, -0.15371149047000002, 1.0, 0.21446782295999997, 1.0, -0.15016405779, 0.03981906348, -0.12872262309, 0.19273013193000002, 0.09514876167], "split_indices": [27, 4, 4, 0, 3, 25, 7, 0, 0, 3, 0, 13, 0, 0, 0, 0, 0], "split_type": [0, 0, 0, 0, 0, 0, 0, 0, 0, 0, 0, 0, 0, 0, 0, 0, 0], "sum_hessian": [49.716008737683296, 18.959154792129993, 30.756853945553303, 14.1550223082304, 4.804132483899593, 14.55251793563366, 16.204336009919643, 1.2554091215133667, 3.5487233623862267, 12.008233204483986, 2.5442847311496735, 14.054729461669922, 2.1496065482497215, 2.91872575879097, 9.089507445693016, 12.244035422801971, 1.8106940388679504], "tree_param": {"num_deleted": "0", "num_feature": "34", "num_nodes": "17", "size_leaf_vector": "0"}}, {"base_weights": [-0.0377005955, -0.10418054796, 0.1839235848, -0.07302875840999999, -0.15760922064, 0.12793226721, 0.19760028012, 0.03054498018, -0.13407474126, 0.18445653990000002, 0.06154179260999999, 0.14438344514999998, -0.15409783788, -0.15867828591, 0.039477297599999996], "categories": [], "categories_nodes": [], "categories_segments": [], "categories_sizes": [], "default_left": [false, false, false, false, false, false, false, false, false, false, false, false, false, false, false], "id": 34, "left_children": [1, 3, 5, 7, -1, 9, -1, 11, 13, -1, -1, -1, -1, -1, -1], "loss_changes": [5.2914411018, 0.6105690236, 0.105073742, 1.1988154118, 0.0, 0.135755665, 0.0, 1.5290372046, 0.71959822, 0.0, 0.0, 0.0, 0.0, 0.0, 0.0], "parents": [-1, 0, 0, 1, 1, 2, 2, 3, 3, 5, 5, 7, 7, 8, 8], "right_children": [2, 4, 6, 8, -1, 10, -1, 12, 14, -1, -1, -1, -1, -1, -1], "split_conditions": [2.0, 1.0, 1.7999999999999998, 2.0, -0.15760922064, 2.0, 0.19760028012, 1.0, 1.7999999999999998, 0.18445653990000002, 0.06154179260999999, 0.14438344514999998, -0.15409783788, -0.15867828591, 0.039477297599999996], "split_indices": [14, 13, 20, 15, 0, 0, 0, 19, 20, 0, 0, 0, 0, 0, 0], "split_type": [0, 0, 0, 0, 0, 0, 0, 0, 0, 0, 0, 0, 0, 0, 0], "sum_hessian": [51.53584221750498, 34.954867370426655, 16.580974847078323, 22.23016830533743, 12.724699065089226, 3.45831361413002, 13.122661232948303, 8.262148432433605, 13.968019872903824, 1.7718986570835114, 1.6864149570465088, 5.124516658484936, 3.1376317739486694, 12.241218037903309, 1.726801835000515], "tree_param": {"num_deleted": "0", "num_feature": "34", "num_nodes": "15", "size_leaf_vector": "0"}}, {"base_weights": [-0.2869103546, 0.12618198317999998, -0.14435216055, -0.15037995345, 0.19882927073999998, -0.15787371063, 0.00104202879, -0.15173009214, 0.16142269824], "categories": [], "categories_nodes": [], "categories_segments": [], "categories_sizes": [], "default_left": [false, false, false, false, false, false, false, false, false], "id": 35, "left_children": [1, 3, 5, -1, -1, -1, 7, -1, -1], "loss_changes": [5.5004702365, 1.7459280813, 0.6850830406, 0.0, 0.0, 0.0, 1.0014436117, 0.0, 0.0], "parents": [-1, 0, 0, 1, 1, 2, 2, 6, 6], "right_children": [2, 4, 6, -1, -1, -1, 8, -1, -1], "split_conditions": [16.0, 0.6749999999999999, 0.6749999999999999, -0.15037995345, 0.19882927073999998, -0.15787371063, 1.0, -0.15173009214, 0.16142269824], "split_indices": [33, 6, 6, 0, 0, 0, 27, 0, 0], "split_type": [0, 0, 0, 0, 0, 0, 0, 0, 0], "sum_hessian": [39.803753551095724, 8.549511659890413, 31.25424189120531, 1.7563269324600697, 6.793184727430344, 28.587081603705883, 2.667160287499428, 1.3687440231442451, 1.2984162643551826], "tree_param": {"num_deleted": "0", "num_feature": "34", "num_nodes": "9", "size_leaf_vector": "0"}}]}, "name": "gbtree"}, "learner_model_param": {"base_score": "5E-1", "num_class": "6", "num_feature": "34"}, "objective": {"name": "multi:softmax", "softmax_multiclass_param": {"num_class": "6"}}}, "version": [1, 7, 5]}